digraph Tree {
node [shape=box] ;
0 [label="X[5] <= 0.5\nentropy = 0.909\nsamples = 7\nvalue = [[2, 5]\n[4, 3]\n[5, 2]\n[3, 4]\n[2, 5]\n[5, 2]\n[5, 2]\n[4, 3]]"] ;
1 [label="X[3] <= 0.5\nentropy = 0.635\nsamples = 5\nvalue = [[0, 5]\n[3, 2]\n[3, 2]\n[2, 3]\n[1, 4]\n[5, 0]\n[4, 1]\n[4, 1]]"] ;
0 -> 1 [labeldistance=2.5, labelangle=45, headlabel="True"] ;
2 [label="X[2] <= 0.5\nentropy = 0.125\nsamples = 2\nvalue = [[0, 2]\n[0, 2]\n[1, 1]\n[2, 0]\n[0, 2]\n[2, 0]\n[2, 0]\n[2, 0]]"] ;
1 -> 2 ;
3 [label="entropy = 0.0\nsamples = 1\nvalue = [[0, 1]\n[0, 1]\n[1, 0]\n[1, 0]\n[0, 1]\n[1, 0]\n[1, 0]\n[1, 0]]"] ;
2 -> 3 ;
4 [label="entropy = 0.0\nsamples = 1\nvalue = [[0, 1]\n[0, 1]\n[0, 1]\n[1, 0]\n[0, 1]\n[1, 0]\n[1, 0]\n[1, 0]]"] ;
2 -> 4 ;
5 [label="X[4] <= 0.5\nentropy = 0.459\nsamples = 3\nvalue = [[0, 3]\n[3, 0]\n[2, 1]\n[0, 3]\n[1, 2]\n[3, 0]\n[2, 1]\n[2, 1]]"] ;
1 -> 5 ;
6 [label="entropy = 0.0\nsamples = 1\nvalue = [[0, 1]\n[1, 0]\n[1, 0]\n[0, 1]\n[1, 0]\n[1, 0]\n[0, 1]\n[1, 0]]"] ;
5 -> 6 ;
7 [label="X[2] <= 0.5\nentropy = 0.25\nsamples = 2\nvalue = [[0, 2]\n[2, 0]\n[1, 1]\n[0, 2]\n[0, 2]\n[2, 0]\n[2, 0]\n[1, 1]]"] ;
5 -> 7 ;
8 [label="entropy = 0.0\nsamples = 1\nvalue = [[0, 1]\n[1, 0]\n[1, 0]\n[0, 1]\n[0, 1]\n[1, 0]\n[1, 0]\n[0, 1]]"] ;
7 -> 8 ;
9 [label="entropy = 0.0\nsamples = 1\nvalue = [[0, 1]\n[1, 0]\n[0, 1]\n[0, 1]\n[0, 1]\n[1, 0]\n[1, 0]\n[1, 0]]"] ;
7 -> 9 ;
10 [label="X[4] <= 0.5\nentropy = 0.5\nsamples = 2\nvalue = [[2, 0]\n[1, 1]\n[2, 0]\n[1, 1]\n[1, 1]\n[0, 2]\n[1, 1]\n[0, 2]]"] ;
0 -> 10 [labeldistance=2.5, labelangle=-45, headlabel="False"] ;
11 [label="entropy = 0.0\nsamples = 1\nvalue = [[1, 0]\n[0, 1]\n[1, 0]\n[1, 0]\n[1, 0]\n[0, 1]\n[0, 1]\n[0, 1]]"] ;
10 -> 11 ;
12 [label="entropy = 0.0\nsamples = 1\nvalue = [[1, 0]\n[1, 0]\n[1, 0]\n[0, 1]\n[0, 1]\n[0, 1]\n[1, 0]\n[0, 1]]"] ;
10 -> 12 ;
}